{"inputs": ["mhs_channel1", "mhs_channel2", "mhs_channel3", "mhs_channel4", "mhs_channel5", "cloud_filter", "lat", "mhs_scnpos", "solar_azimuth_angle", "solar_zenith_angle", "avhrr_channel3", "avhrr_channel4", "avhrr_channel4_std", "avhrr_channel5"], "targets": ["iwp_log10"], "scaler": {"params": {"copy": true, "quantile_range": [15, 85], "with_centering": true, "with_scaling": true}, "coefs": {"center_": {"__ndarray__": [234.13999476656318, 258.14999422989786, 241.88999459333718, 253.2399943396449, 261.509994154796, -1.2874999712221324, -1.7942999546721694, 48.0, 201.1199955046177, 70.66999842040241, 267.05427974515726, 252.72436935117003, 1.9569302900628693, 251.19582771866894], "dtype": "float64", "shape": [14]}, "scale_": {"__ndarray__": [61.93999861553311, 63.93999857082963, 8.399999812245369, 15.509999653324485, 33.81999924406409, 2.5533332762618954, 127.31917678364698, 19.0, 159.10999644361436, 101.49999773129821, 46.368140821733135, 44.78585614181523, 4.540299749006119, 43.55668234311554], "dtype": "float64", "shape": [14]}}}, "estimator": {"params": {"activation": "tanh", "alpha": 0.0001, "batch_size": "auto", "beta_1": 0.9, "beta_2": 0.999, "early_stopping": false, "epsilon": 1e-08, "hidden_layer_sizes": [15, 10, 3], "learning_rate": "constant", "learning_rate_init": 0.001, "max_iter": 3500, "momentum": 0.9, "nesterovs_momentum": true, "power_t": 0.5, "random_state": 5, "shuffle": true, "solver": "lbfgs", "tol": 0.0001, "validation_fraction": 0.1, "verbose": false, "warm_start": false}, "coefs": {"n_outputs_": 1, "n_iter_": 3501, "t_": 0, "n_layers_": 5, "out_activation_": "identity", "coefs_": [{"__ndarray__": [[-2.377193195963058, 0.7373724805640086, -0.7030265212637905, -0.6254629332580479, 0.062127763417776365, 0.09773689249652752, -0.18439662930486297, 0.08715799427097805, -1.593653762368619, -0.042466655734067875, 0.46771959871672064, -0.12346505110343269, -0.7080267367324954, 0.4935219733487393, -0.06283640605160581], [0.8656052460230024, -1.4654205925459933, -0.2710560898052477, 0.7427064287464634, -0.21684370313639437, 0.1332013919321598, 0.5370545889595152, -0.37570838865059425, 1.0788632665366689, -0.17857431441267363, -0.6401661755366371, -1.0448004345471198, 2.6906089913748144, -0.7631692009319482, 0.8621008720911625], [0.1565899122789537, -0.35291737381918903, -0.31861271526700563, -0.7364975196209979, 0.045301626689062, 0.029524317523281232, -0.039452673871170164, 0.1986105973747718, 0.08531141122869079, 0.04608802904364398, -0.03684093003455224, -0.3673684765423908, 0.05199204324122362, 1.2589269267148169, 0.24102369486925546], [-0.42366930611755166, 0.18235016616952138, 0.4959406488027608, 2.78213378347786, 0.13779697113898898, 0.3185229313465633, 0.2911440716164143, 0.8737883708892532, 0.006729667049434495, -0.019272215536489907, -0.017560888314874148, 0.5765100285664845, -0.13822011436149848, -0.25729992180151506, -0.46342986969031535], [1.137892388747513, -0.050785066840009316, -0.34415515433746796, -0.9053712243929967, 0.7527593068558621, -1.378688380955411, -1.363607190467385, -4.208595588219844, 0.055788391147953, 1.120221697860689, -0.6178697213847572, 0.3106430916120724, -0.919582022555213, 0.40911076247199446, -0.03160916172014545], [-0.3165198839949651, -0.5103882877361511, -0.04425018485830725, 0.02018785312156419, 0.03043508164850167, 0.45127320352084177, 0.005307545562868283, 0.0633062641382376, -0.10199696595629304, -0.054596247022959156, -0.061195640197742165, -0.016052545919077267, 0.02979506201695815, -0.19633644784283796, -1.7373132778515878], [0.1403363599840672, -0.11806665219409072, -2.0919689261525307, -0.05957879341038453, -0.0027622234489732512, 0.15347350646355085, 0.15257316255963282, 0.17241824231110714, 0.10688932408538192, -0.295550396643488, -0.2463220588219585, 3.760003646128269, 0.3066842062961935, 0.5751882104176154, 0.26988710577806385], [0.07122565871562295, 0.024284962642819957, -0.05946349614755542, 0.008413943554190716, 0.0033482165753238487, 0.03206550234931119, -0.00021561675819668194, 0.003976240857167804, -0.02574685897472801, -0.018894646078179925, 0.01174415714228321, 0.11650721783419142, -0.010702296613453668, 0.014630150283458767, -0.025186812597899153], [-0.05807980540454424, -0.0615891835075571, -0.12468487480332632, 0.09841227941495921, -0.08618524369054999, -0.1411934005183097, -0.07352137074782249, 0.06685777759471621, 0.17050652099147484, -0.06546853953538408, -0.1298829339083547, -0.010351143206457528, 0.12755080468106902, 0.0738809967244927, 0.02106645873993979], [-0.6633222028518407, 0.5169957821452317, -0.11339800399777061, 0.046923543130820825, -1.1785386411919703, -0.4269459201465374, -0.3979001643870598, -0.017848733099869587, 0.8504587608527314, -0.9949270299735581, -0.6534572735074229, 0.06003558992402679, 0.4795790894558429, -0.1784973670729857, 0.16321863689191934], [-0.3964455023060462, 0.06552296188479748, 0.42071222938723896, -0.57250185542656, 0.7101503129477507, -0.08197598177258864, -0.684968133551971, 0.019621887030673326, 0.0393452609397131, -0.49498540156512116, -0.19924924755644444, 0.28413426403193887, 0.5004130804852768, 0.1366172491517796, 0.5643439538051265], [0.5764036123299463, 0.048602641405979446, -0.6848539471750618, 0.5040654519394089, -0.14997898885945246, 0.886857048377372, 0.2586383176334064, -0.2120709227938365, -0.03266873297556927, 0.166859645954025, 0.0011193021625028042, -0.16699479967959013, 0.24846749925311853, -0.04692665308546552, 0.025201046169830477], [-0.1452176365022949, 0.037125995107422455, 0.0882728873905415, -0.004722836737557008, -0.03903779007074777, -0.12042650277778572, 0.08599298270228703, 0.05549470361450876, 0.06386531401214093, -0.028779035980496637, -0.01598122052238462, 0.527613450974464, -0.16836611090277023, 0.009316805690737758, 0.5236970165030466], [0.5778880582539052, 0.10878463576269157, -0.6042983644526663, 0.18791325139464218, -0.793379342572621, 0.5329697774798832, -0.6143985065021783, -0.27450219023261063, -0.3574462025503681, 0.061961983970941416, 0.036262729030718574, 0.04978657952559226, 0.503734871430715, 0.02243799315345469, -0.13379662533366765]], "dtype": "float64", "shape": [14, 15], "Corder": true}, {"__ndarray__": [[-1.050690595190623, 0.058720527269197804, 0.4342805491150743, -1.6719648780834289, -1.8198774598566378, 0.6596213849704194, 2.232393018392611, 1.0821520045937008, -0.5447132219714732, -0.39876020994675954], [-0.6564404201205982, 0.8348689711117212, -0.042182124899479374, -0.8725297915320417, -0.6489366233355433, -2.6705036198920817, 0.14452340970549252, -0.9185359101150411, 0.07010883605885546, -0.8258237974665961], [0.597868098026969, 0.004861024742381947, -0.292706406916749, 0.21538325235132666, 0.2147867261009592, -0.23010145652556427, -0.8054818822926914, 0.21236792942452193, 0.274840319849628, -0.1109052852846958], [0.6006967308588689, 0.10484548181067496, -0.2012356383065537, 0.41934709442246393, -0.5822505341807189, 0.41431855409141066, 0.33140381067719576, -0.1577214716763547, 0.26516619799001256, 0.7345508127184449], [-0.685647707587655, 0.4204831478923416, 0.42097849617841204, -1.4565197107646437, 0.2584177565649271, -0.4416127662472238, 1.027596284538856, 1.1180400111709787, -0.12869316724340266, -0.38453134988295673], [0.6966589970487682, -0.05212022384868778, -0.9982197361796843, 0.16297147490422326, -0.5410241502079937, -0.7499142898050649, -0.6772051011425597, -0.6247769473665387, 0.38904506048739207, -1.9482274939670234], [-0.6873510003080545, -0.6959530701674442, 0.40654678933370375, -0.45096380969234745, 1.6239071123429998, -1.6270753387751948, -1.3328724571664907, 0.05224683771514781, -0.6912489562506736, 0.9608850048324626], [0.944458209159416, 0.09944426831803198, -1.9200197592047537, 0.6453487345561243, -2.295915461901631, 0.9095642210349973, -0.8656243840518616, -0.3100523158791179, 0.09605116701039153, -1.1300284466235755], [-0.14351515693365455, 0.18977909920613578, -0.4809662127804943, -0.5850322810121368, -0.948336137395904, -1.0999817612344935, 1.1140871267100467, -0.09766576125079367, -0.6481295016281777, -0.0870015174123764], [-1.0413628534297772, -0.22728295945411692, 0.4475500608332943, 0.4424841343334731, 0.3116763289497152, -2.231899691551632, -1.3841344972975211, -1.4946081437188832, -0.7618125572494944, -0.08491172814977879], [2.0514125207071396, -0.4699414887776876, -1.7187664773364073, 1.4235383372149402, -1.9111851145164582, 0.8112171875831353, 0.874828714580305, 2.034884638551345, -1.0414419050260941, 0.54941983125177], [0.5135733289677291, -1.2592511011856689, 0.34619725951884406, 1.826101404305627, 0.9379539937249712, -0.0561113645332132, -2.561684613797956, 0.15480563717163304, -0.19603005747211674, 0.06861664972368778], [1.1862542692417346, 0.4135007362679354, -1.3176963030627766, 1.0150601286747227, -0.9214012602302512, -1.7998660688106127, -1.773101785670709, -0.10990766405448849, -0.26082405094344685, -1.8615900317963472], [0.5744751734428653, 0.42023362849033175, -0.11959845311748363, -0.013112670856476282, -0.036637828778666434, 0.20584551126035022, -0.03985574831689196, 0.050161016599612335, -0.01595749439125407, 0.19274083349872737], [0.09528687388163004, 0.18619937887820848, -0.6707659024518523, 0.18872553700435485, -1.041620863785811, -0.9374008295729327, -0.28744962853489137, 0.09249624978432665, 0.1142019632111791, 2.7748702736014956]], "dtype": "float64", "shape": [15, 10], "Corder": true}, {"__ndarray__": [[-0.33296774567508125, 1.4313320066168456, -1.8353005449388553], [0.29801409427211256, 1.9600333297182941, -0.7244881898378674], [-0.0610014739792981, 1.3666187534510863, -2.930795386792513], [-0.24657487868227781, 2.2959514485273966, 0.5544111582586558], [0.3463400936016639, -0.9392154129994458, 2.2919344910784956], [-0.5616483535878138, 2.027686047930022, 0.4553575052440076], [-0.517266408072809, 1.7456284584928559, -1.1170344837945947], [-2.2995939724120342, -1.3454874529123508, -0.3593448228048588], [-1.5991446972435774, -2.295069680772957, 0.394379245159991], [-0.6400267175679192, 0.405140166880716, 3.4687936109101325]], "dtype": "float64", "shape": [10, 3], "Corder": true}, {"__ndarray__": [[-1.1155535702017236], [-1.3385938125819277], [0.8972039196787979]], "dtype": "float64", "shape": [3, 1], "Corder": true}], "intercepts_": [{"__ndarray__": [2.866972679922592, -0.17148432994454513, 0.9883212155513335, 0.40987069072180393, 0.9092922822825787, -1.0029784456862705, 0.741162928288939, 0.26658182717471485, 1.0194043912472401, 0.23181242088066384, -0.19730721752249245, 2.9296034216310196, 0.4261808199227667, 0.4489812439363528, 1.3428164880393216], "dtype": "float64", "shape": [15]}, {"__ndarray__": [1.1205553773183734, 1.3789085139249702, 0.17130787381082566, -0.10159306194499017, 2.5903126227577236, -1.070405744636862, 1.2974572256011527, 0.21067581314652004, 0.18384172333586804, -0.35898140808115464], "dtype": "float64", "shape": [10]}, {"__ndarray__": [0.4758365458958671, -1.0377399525591209, -1.34652504429196], "dtype": "float64", "shape": [3]}, {"__ndarray__": [0.7130979681221238], "dtype": "float64", "shape": [1]}], "loss_": 0.09385446423550584}}}