{"inputs": ["mhs_channel1", "mhs_channel2", "mhs_channel3", "mhs_channel4", "mhs_channel5", "cloud_filter", "lat", "mhs_scnpos", "solar_azimuth_angle", "solar_zenith_angle", "avhrr_channel4", "avhrr_channel5"], "targets": ["iwp_log10"], "scaler": {"params": {"copy": true, "quantile_range": [15, 85], "with_centering": true, "with_scaling": true}, "coefs": {"center_": {"__ndarray__": [236.44999471493065, 261.0099941659719, 242.28999458439648, 254.01999432221055, 263.0199941210449, 11.399999745190144, -12.53459968334937, 47.0, 195.1399956382811, 73.8299983497709, 255.1633276299884, 253.53453978760675], "dtype": "float64", "shape": [12]}, "scale_": {"__ndarray__": [57.77999870851636, 50.50999887101352, 8.539999809116125, 13.109999706968665, 22.329999500885606, 7.62999982945621, 113.09979714285873, 21.0, 175.1599960848689, 110.88999752141535, 43.03999903798106, 41.905074820924284], "dtype": "float64", "shape": [12]}}}, "estimator": {"params": {"activation": "tanh", "alpha": 0.0001, "batch_size": "auto", "beta_1": 0.9, "beta_2": 0.999, "early_stopping": false, "epsilon": 1e-08, "hidden_layer_sizes": [13, 10, 3], "learning_rate": "constant", "learning_rate_init": 0.001, "max_iter": 2500, "momentum": 0.9, "nesterovs_momentum": true, "power_t": 0.5, "random_state": 3452, "shuffle": true, "solver": "lbfgs", "tol": 0.0001, "validation_fraction": 0.1, "verbose": false, "warm_start": false}, "coefs": {"n_outputs_": 1, "n_iter_": 2501, "t_": 0, "n_layers_": 5, "out_activation_": "identity", "coefs_": [{"__ndarray__": [[0.17047010712288582, 1.7514730705356478, 0.6143282383817587, -0.20701360240683833, 0.22742768521624668, 0.36592511557059876, -0.17382737512785054, -0.4730682892941659, 0.0921797522890465, -0.052930285400387696, -0.15996862463424816, 0.04441837217411488, 0.5724443630908506], [-1.8693360982360185, -1.831494207406394, -0.6485853928131973, 0.6704522989697282, 0.4023179110403442, 0.06662302039824143, 0.03273721977749917, 0.09624585229507988, 0.01864345260485982, -0.6489080761042504, -0.3478606400308196, -0.11092313719787561, -2.737397142579774], [0.056311877556223036, 0.0001553892739487847, -0.26072591496678377, -0.4273042614997204, 0.05605237354720005, -0.19206089296522874, -0.24526140430918325, -0.023211329071736612, -0.06574168765233868, -0.09711849457232052, -0.0890261274988294, -0.25786309939403235, 0.9835887667493052], [0.42912036803712195, -0.1784437822650911, 0.4535063756550796, -0.33686470176207445, 0.24306073851047097, 0.22642930333611405, 0.5750277585450672, 0.12458603215795659, 0.17459442080422577, -0.3385183963912311, -0.19023916085010503, 0.12129851284219438, 0.810574806301057], [1.7375446974222044, 1.0729012423767121, 0.4828667376676636, 1.1217217546854983, -0.428238335749292, -0.27461848776070924, 0.7612926796129471, -0.8648342856027286, -0.1378346831762373, 0.5190376267442763, 0.7132880955275602, 1.0514330396454716, -4.233676464410962], [0.6009570330219853, 0.01719366359251451, -0.06821141391841856, -0.31644882953173614, 0.1322978852377664, 0.10915743046285578, 0.04412519749555379, 0.4424092521262966, -0.1361401945767425, 0.177221369089832, 0.22845681894492678, -0.15338057482117282, 0.884574414650063], [-0.11390538242612955, 0.20027749724099259, 0.3360048494134187, -0.10632368727843701, -0.49763599209362147, -0.6500793722005633, 0.007804578800281873, 1.5613817668804322, -0.09451986985345888, -5.57162955285738, -0.1367939379691373, -0.3618564414986067, -0.07385541840143613], [0.037180949754828836, 0.028426697419786665, 0.05852831818497542, 0.06519469365551243, -0.03578243659958786, -0.02622996211677223, 0.036778168422391615, 0.06896363942353281, 0.012328780428480322, -0.05262618995435288, -0.04175565269781802, -0.003318851797369151, 0.06176917194233398], [-0.05750890196672192, -0.07202272694590618, 0.02049561268235754, 0.07698629003243311, -0.04029580445679696, -0.05174401582036599, -0.0024701872018876407, 0.05019070586784981, 0.027278442604305887, 0.05102881137794608, -0.09135445902927558, 0.0012676261840644145, -0.07654248458373519], [-0.115580945129091, -0.08148435312370678, 0.13124030455256536, 0.30512939500019554, -0.2326935199236494, -0.1892492419300692, 0.01239626140175004, 0.13705463566314688, 0.08636297479166408, -0.07713058415225277, -0.42416539661615577, -0.0018503355489046952, -0.05572510004152955], [0.008574000639253728, 0.9668704533096175, 0.5157157915579675, 0.124204269999452, 0.8630575095854542, -0.541285869998509, -0.6576361068928773, -0.36479905318430006, 8.80359689705961, 0.27575638319964274, -0.3054590276144534, -0.1346211487597675, -0.05000496106348897], [-0.04470804436272372, -0.4765440354447829, 0.2516458582449745, 0.06321610162354994, 0.10565162599766798, -0.18828802391432264, 1.0714216738173612, 0.1465810083393471, -8.584002327568683, -0.05713682515503112, 0.4210542531366055, -0.9142249267819881, 0.013646267233909486]], "dtype": "float64", "shape": [12, 13], "Corder": true}, {"__ndarray__": [[-1.2323251972125113, -0.1679398239177644, 0.29902751454998266, -0.03335958742362447, -0.1225436302827219, -0.31590139764247455, -0.20493158915045687, -0.7795133390172343, -0.8306197286559246, 0.03403958986621288], [1.3950800593364348, -0.24999940061151005, -1.38513075382388, 0.012455167695407705, -0.18818318214231278, 0.16277752325129677, 0.7608658233917571, 0.18184212532990102, 0.36736315419692994, 0.18663811414362613], [-0.6455567490341291, -0.8222014941759016, 1.9411496270249715, -0.6585438570698016, 0.34420056849033537, -1.2403213266170383, -1.2914167855568135, -0.04928742610999964, 0.508547537757524, 0.5459026654414951], [0.17007096998102617, 0.31518563225570223, -0.986316230397187, -0.6756138053687151, -0.11034071576827567, 2.276904801949658, -2.303834782419794, 2.3505480468097404, -0.38126353671733115, 0.26478720590304305], [-1.3166168014954982, 0.8697600269741801, 1.2237387003679658, 0.1408426868052431, -0.31661794734848336, 0.9506470646354833, -0.05262793516306582, 1.598956690664094, -1.4702798942938493, -1.6017048436064072], [-2.9886844527646534, 0.7059403520312821, -0.7908587672849311, 0.638489247024128, -0.06215409823105075, 1.6147137243946958, -0.6020407890358618, -0.08615338914921933, -0.5394062386048825, 0.36489552145801857], [-0.7758496870270444, -1.2080115382962888, -0.8791564252788968, -0.13377596265454436, -0.9784164072161705, 0.5045556271268188, 2.0264013996084524, -2.0768095567154443, 1.752588598357867, 0.4558551352966912], [-0.0409784269112338, 0.6591581152974049, -0.6239005866587242, 0.767746419216439, -0.9003215741701884, -0.15949738314088138, 1.3183837066698203, 0.3687486860868552, -1.0498462713242522, 0.4242688752078347], [-0.6443920710641842, 0.7394345263335946, 0.3112683851797749, -1.4138367859484398, -1.4296081279703123, -0.3042237994907997, 8.914052800997302, -0.4489247471441613, -1.3851512339559102, 0.35327130516737487], [-0.14436722974560415, 0.09045469499836957, -0.22371601133458757, -0.7920847972736681, -0.5166690941379087, -1.278371899619318, 0.2959111153720573, -0.5667226883856329, -0.24614278179649884, 0.09942370368964872], [2.930097408132125, -1.382803338705013, -1.771386742833258, -2.290138572839289, -0.6003722261735789, -0.2075064496081288, 1.8733526659939217, -0.19906753282823358, 0.8934483867130073, 1.3778254783621688], [0.5195009829700358, -1.2013910106632752, 1.1964504854387537, -0.01714011738426525, -0.7065557990085327, -0.48112050659384503, 1.165955630339131, 1.088094767816881, 0.6669869075788191, -1.0580382362579916], [0.2501152206660519, 0.8139935501226508, 0.11288613050888723, 0.06467446226628279, 0.20351516147312249, 1.1267875072942057, -0.8038946966333538, 1.1608329544025764, -0.434075122813908, -0.15353387360132234]], "dtype": "float64", "shape": [13, 10], "Corder": true}, {"__ndarray__": [[1.0988076835952552, -0.20779390022313554, 0.6084830089504553], [1.0848598727246936, 0.5343594100365402, 1.2209179653788014], [-1.3640630142561114, -0.2527576739476867, -1.2264572375620195], [0.8928045137115442, -0.008333274052565924, 0.06902659920649377], [-1.2464810024560806, 0.8822084750231836, -1.7346079214996113], [0.30665495950066257, -0.055915398100118106, 3.8025680108944484], [0.01508475206689127, -0.46572564989168097, 4.5747409745691705], [0.5775731453184062, -0.5270604794814892, -1.0025654555551318], [0.9002117039445396, -0.019121578056293304, 1.6035808659763142], [0.414715250686683, 0.024550423997470452, -1.5766951481455236]], "dtype": "float64", "shape": [10, 3], "Corder": true}, {"__ndarray__": [[1.3824568557930772], [1.2123441592321282], [1.5574467214323713]], "dtype": "float64", "shape": [3, 1], "Corder": true}], "intercepts_": [{"__ndarray__": [0.5272982356966174, -0.881687688052688, -0.5963993775458747, -0.7313150328322364, 0.2402131984748159, -0.05548118438249809, -0.27161935946327553, -0.567065455512828, 0.0980240882386678, -2.092829812177602, 0.9655738432454343, 0.20372314710803188, 0.35086079171317264], "dtype": "float64", "shape": [13]}, {"__ndarray__": [-1.8659281432613384, -0.18852313106737975, 0.08344507471547125, 2.4490543334221178, 0.2963515780412086, -1.0796202953947722, 1.451613198504097, -0.5600315592614562, 1.1171809914656594, -0.18853572127905677], "dtype": "float64", "shape": [10]}, {"__ndarray__": [3.419213490975974, -0.13580774465037798, -0.8609227609408501], "dtype": "float64", "shape": [3]}, {"__ndarray__": [-0.05910007373470913], "dtype": "float64", "shape": [1]}], "loss_": 0.0980320961410062}}}