{"inputs": ["mhs_channel1", "mhs_channel2", "mhs_channel3", "mhs_channel4", "mhs_channel5", "lat", "mhs_scnpos", "solar_azimuth_angle", "solar_zenith_angle", "avhrr_channel4", "avhrr_channel5"], "targets": ["iwp_log10"], "scaler": {"params": {"copy": true, "quantile_range": [15, 85], "with_centering": true, "with_scaling": true}, "coefs": {"center_": {"__ndarray__": [236.4199947156012, 260.9999941661954, 242.29999458417296, 254.02999432198703, 263.02999412082136, -12.52059968370304, 47.0, 195.0799956396222, 73.84999834932387, 255.12691737439198, 253.49166100068638], "dtype": "float64", "shape": [11]}, "scale_": {"__ndarray__": [57.78999870829284, 50.41999887302518, 8.539999809116125, 13.079999707639217, 22.249999502673745, 113.1666771411692, 21.0, 175.17999608442187, 110.84999752230942, 42.95093676890946, 41.840108954910534], "dtype": "float64", "shape": [11]}}}, "estimator": {"params": {"activation": "tanh", "alpha": 0.0001, "batch_size": "auto", "beta_1": 0.9, "beta_2": 0.999, "early_stopping": false, "epsilon": 1e-08, "hidden_layer_sizes": [13, 10, 3], "learning_rate": "constant", "learning_rate_init": 0.001, "max_iter": 2500, "momentum": 0.9, "nesterovs_momentum": true, "power_t": 0.5, "random_state": 0, "shuffle": true, "solver": "lbfgs", "tol": 0.0001, "validation_fraction": 0.1, "verbose": false, "warm_start": false}, "coefs": {"n_outputs_": 1, "n_iter_": 2501, "t_": 0, "n_layers_": 5, "out_activation_": "identity", "coefs_": [{"__ndarray__": [[0.08797390943582448, 0.5847361061390055, 0.14529749951758977, -1.1394623956623813, -0.11402924031462654, -1.0274321871761602, 2.4054774285376452, 0.47259935299869704, -0.008470502107656782, 0.7831339754004593, 0.6964913126892782, 0.7858138624927464, -0.4010408590953313], [-0.6130990182944248, 0.10407131423860352, 0.09125091167819417, 0.644268954780331, -0.05956974948422196, 1.468104170367735, -0.7925914893539713, 1.4107188768887435, 0.6888820109628645, -0.2519251414957255, -0.5658253799179456, -4.094274490977691, -2.990113060016247], [-0.6508060478210815, 0.2893210953394287, 0.003275683281223037, -0.2994320138712685, 0.21502273394229832, -0.11880367443436958, 0.13750399078749503, -0.2666179566182753, -0.6767539653351066, -0.19026828593496803, 0.19845419496159145, -0.5168448290437132, -0.3770895864856883], [1.1755022700989715, 1.4205679960559938, 0.054043242264537356, 0.9020721721933566, -0.550721253066372, 0.6965769781819399, 0.031488169055945904, 1.218720249740766, -1.1600297566537991, 0.4484680944730663, -0.4218219397064968, 0.9539394084705108, 0.8424365555817221], [0.2861291787122278, -5.096390058061539, -0.1444085291163262, -0.46601649477843116, 0.49613149205641277, -1.11356951289934, -0.16425032646069176, -2.302300060918294, 0.04213946138360345, -0.5270980813735302, 0.3884032681036495, -0.008216120820334316, 0.18666411560248922], [-0.30132106049355967, 0.09451661942953068, 0.07251715798632265, 4.178457612351894, 0.13546706991897928, -1.9342512109358914, 0.0499094137453868, -0.07931351931650246, -0.38013498958514863, 0.2279309551582564, -4.558067537827398, -0.18025262712914372, -0.3673356147363038], [-0.0014401675387768782, -0.014837181940658585, -0.002740770149138397, 0.1285036122017437, -0.03432269580003832, -0.10803832970451792, -0.025584288198653726, -0.02464683953424839, 0.06614464964279378, -0.004223484066894386, -0.08808731888413805, 0.026943858615559244, 0.014002431595832258], [-0.1376423406544127, 0.16879117893538764, 0.003844843381834938, -0.10007049140670878, -0.007747311740957877, -0.4575166282948736, 0.003999283228160497, -0.03641385270399892, -0.1203256172914662, 9.74064137999544e-05, 0.1507927826572361, -0.21623684921415642, -0.2741853321909539], [-0.4034796236952985, 0.05334578029686433, -0.04155431933777496, 0.1511968352813246, -0.07295620366755998, -1.0509194509737931, -0.06911078827339542, -0.1818701342880045, -0.08126650509640582, -0.20159422111823344, 0.03653566687399704, -0.5250196680451299, -0.27573841053718273], [0.06452302710771317, 0.15614295067204953, 8.415960460770037, -0.6527207575937768, -1.1944107542582065, 0.9935686881728476, 0.03746844895188449, -0.5697428283221512, -0.015417920677024948, -2.2772703832663566, 0.17945273633587466, 1.6010053196474001, -0.18952992733271298], [-1.8336089705496934, -0.0313526462416465, -8.580132901318125, 0.41993732968267694, -0.05945326217706994, -1.796339034440686, -0.04104665857615108, -0.05518720358110413, -0.03980898359019484, 3.013587801862289, -0.005221711141276418, 0.7724650048183362, -0.10680421017896889]], "dtype": "float64", "shape": [11, 13], "Corder": true}, {"__ndarray__": [[0.6494629313353608, 0.3567919491728018, 0.25353962668309193, -1.415534114805204, 0.5868035934163369, 0.855715901591984, 1.1664476810531954, 3.42911196175047, 0.9749370612993323, 0.7630300809413858], [0.07624212468959268, 0.019079070730204643, 0.1337756495266828, 0.10936958042115327, 0.36305037356608905, -2.469151040799426, 0.25009854777944696, -2.456948691612723, -0.3752411096826136, -0.8849586639968189], [5.945601262959115, 8.122234029933383, 1.1072226432780425, -2.4987773208852078, 0.9365671380718604, -1.0200531252438398, 1.1737580291262153, -1.5571407758997937, 0.4007587626847196, 0.7981189601054258], [0.7783053529529443, -0.17578796043555023, 0.20366462469139485, -1.7553537159552903, -0.6353988290254081, -3.1108813724714124, 0.3790244458528426, -0.13685897851759288, 0.6340236435193681, 0.4419125108926806], [0.20481673675066978, -2.5631615729149226, -1.3219549646456568, -0.5311047607534867, -0.5881010894407818, 1.8929373210820308, 0.48681709509870014, -3.3612660232407974, -0.027728883409316583, 0.16691452374250235], [-0.13242149541540732, 0.10863159378166383, -0.05827056779401927, 0.562936862677312, 0.518098176949346, 0.09387369790899412, -0.768320140713687, -1.8552854360209738, -0.19373859804470311, -0.1670942001021992], [0.7660666212804766, -0.5257628224780093, -0.47246210521322013, -4.001531551346991, -0.16672494983370376, 1.1284731124912113, 0.6726016465774721, -0.40994422896617677, -0.5010611035255825, 0.8364548547640777], [-2.1288143391017296, -0.9725085914768208, 0.17555900338949226, 2.346278945530511, -2.288284548361598, -1.6833614181614283, -0.3956721486399027, 1.3994377204092046, 0.09753262004329254, -1.2721210253607713], [0.7056720692788998, -0.2525871754008536, -0.1304688899625783, -1.1629928722658387, 0.231485206870874, 0.14559140351410557, 0.26565508813056915, -2.9320108073988647, 0.439024929085866, 0.19994775299825812], [2.416804835488098, -1.1080544121313998, -0.18309985874284435, -0.6382938614133066, 1.223391362584368, 1.2549915138573968, 0.7784209973884224, -1.7694324977409845, 0.5630964546851297, 0.11910067266261132], [1.6005723475256188, -0.22631023447412257, 0.2400369539557906, -2.154004552385161, -0.7085708858424115, -3.1105860806489307, 0.6481135141199019, 0.4307079298306676, 0.7440736787905412, 0.5132919327675856], [-1.5689385281659767, 0.03964751654136136, -0.35285977227685555, -1.3277694439509595, 0.08071301622009242, 0.18963393516616744, 0.06124327674927713, 0.4569454711285552, -0.09614797563886464, 0.15472613993793458], [2.014413378991997, -0.40390633976601964, 0.19715573935608724, 0.43281854221289323, -0.012275320119115573, -1.7560127105434773, 0.7991468357690125, -0.8100570033348835, -0.22622227416641597, -1.169010611101283]], "dtype": "float64", "shape": [13, 10], "Corder": true}, {"__ndarray__": [[-0.4328876678545172, -0.12032983123227835, 0.5096911476024449], [-3.227672459773956, 0.23250898579501492, 2.7319351153276163], [1.9743012274860894, 1.2372917624053184, -1.8477773441666263], [-0.5008157411723216, -0.2524720685758066, -0.4886320350949287], [1.9043277263446468, -2.0155791256078404, 0.472542455734681], [-5.1337971538329965, -0.14640918602459962, -1.048759435112224], [1.6603417454618148, -0.7823899378994892, -1.6175533337772312], [0.3758760438834094, 0.2426783363917301, 0.22503776815109885], [-1.0503936879065434, -0.8689867249549605, -0.34655273877675213], [3.838598295335447, 0.023919390021542322, -1.0887080629018744]], "dtype": "float64", "shape": [10, 3], "Corder": true}, {"__ndarray__": [[-0.9766888348056176], [-2.762328949032111], [0.6607163271561087]], "dtype": "float64", "shape": [3, 1], "Corder": true}], "intercepts_": [{"__ndarray__": [0.21872483918209976, 0.18404366380999995, 0.6138607640394795, 0.43194125542088013, 0.33982692924816343, 1.6992302257598941, 1.2068253650676224, 0.07604911317035667, -0.48206724267889295, -0.8508473266786221, -0.9180437004795265, -0.608151219438933, 1.0798877343366917], "dtype": "float64", "shape": [13]}, {"__ndarray__": [-0.7711139342721014, -0.9884366065986999, 0.9764642057853684, 1.9661989791784726, 2.8380653762275108, 4.539169870573943, 1.9117299697553642, 2.366285294038351, 1.0616773501721124, 1.6947563192519057], "dtype": "float64", "shape": [10]}, {"__ndarray__": [0.2712051214390393, 0.31043793253174207, 1.306477067663096], "dtype": "float64", "shape": [3]}, {"__ndarray__": [-0.3882984344491466], "dtype": "float64", "shape": [1]}], "loss_": 0.0956519852933587}}}