{"inputs": ["mhs_channel1", "mhs_channel2", "mhs_channel3", "mhs_channel4", "mhs_channel5", "cloud_filter", "lat", "sea_mask", "mhs_scnpos", "solar_azimuth_angle", "solar_zenith_angle", "avhrr_channel4", "avhrr_channel5"], "targets": ["iwp_log10"], "scaler": {"params": {"copy": true, "quantile_range": [15, 85], "with_centering": true, "with_scaling": true}, "coefs": {"center_": {"__ndarray__": [234.13999476656318, 258.14999422989786, 241.88999459333718, 253.2399943396449, 261.509994154796, -1.2874999712221324, -1.7942999546721694, 1.0, 48.0, 201.1199955046177, 70.66999842040241, 252.72436935117003, 251.19582771866894], "dtype": "float64", "shape": [13]}, "scale_": {"__ndarray__": [61.93999861553311, 63.93999857082963, 8.399999812245369, 15.509999653324485, 33.81999924406409, 2.5533332762618954, 127.31917678364698, 1.0, 19.0, 159.10999644361436, 101.49999773129821, 44.78585614181523, 43.55668234311554], "dtype": "float64", "shape": [13]}}}, "estimator": {"params": {"activation": "tanh", "alpha": 0.0001, "batch_size": "auto", "beta_1": 0.9, "beta_2": 0.999, "early_stopping": false, "epsilon": 1e-08, "hidden_layer_sizes": [15, 10, 3], "learning_rate": "constant", "learning_rate_init": 0.001, "max_iter": 3500, "momentum": 0.9, "nesterovs_momentum": true, "power_t": 0.5, "random_state": 100, "shuffle": true, "solver": "lbfgs", "tol": 0.0001, "validation_fraction": 0.1, "verbose": false, "warm_start": false}, "coefs": {"n_outputs_": 1, "n_iter_": 3501, "t_": 0, "n_layers_": 5, "out_activation_": "identity", "coefs_": [{"__ndarray__": [[0.8593203880469078, 0.6577738841885218, 0.560323900650284, 0.5474503978443752, -0.21086150190604724, -0.036436827579841846, -0.29006998662803807, 3.3918251955042638, -0.1717973204182667, -0.018030579063612415, 0.15998194651147096, -0.31502618785640596, -0.11030482860318278, -0.27028428788033404, -0.5158383163741053], [-0.24691445346145188, 0.010346945824942314, -1.250651400317239, 0.26715987796480295, -0.42262037362068655, 0.17645422966837673, 0.8394568154367702, -1.4626516783910342, -0.527432310268153, 0.6815489620626858, -0.5479307582091665, 0.5946741020956401, 0.96768228058986, -0.1191004489880315, 0.02743770720639331], [-0.01762523241004191, 0.2508649473662218, 0.2636163433877056, -0.4211249383312988, -0.13744091233004438, -0.21684935407376266, 0.6522293972522516, -0.1380312132999492, 0.3533076217055671, 0.564607820671838, -0.04615460227304451, -0.27856251545160454, 0.99491057385475, 0.14212894307468124, 0.1663470462871872], [0.09905777210650546, -1.1678976672599988, -1.1209490340046513, 0.7313160082367344, -0.05561056054898335, -0.1960675046541859, 1.0069266002733765, 0.45376651843826565, 0.4879147523608397, -1.0999656445496262, 0.11546457601543057, 1.062039934014285, -2.9303489640178655, 0.05366873490402542, -0.3067350750344293], [-0.4596164106256089, 1.253821391897054, -0.3074855158382581, -2.143134957535096, 1.4641535342003984, 1.079633962960027, -0.46403475173100867, -0.9849980003324011, -3.211939915155329, -1.4045432148471644, 0.6683179839580663, -3.4083591359095715, -0.20513454151847357, -0.6676633286505962, -0.049512296856709104], [0.009892854245365096, 0.006532006541785038, 0.044361527392950656, -0.6982947431346352, 0.07894325254234, -1.1183848951169377, -0.3173488410412007, 0.0478087195067239, 0.5959235435985966, -2.861464580194601, 0.024936926351272433, 0.5322423720171133, -0.017281027002545777, -0.0057983075209364545, 0.6304220280373586], [3.4773215261741766, -0.6056445766662606, -0.1554099111579047, -0.1089986115053705, 0.0536463829764105, -0.3269744803178497, -0.1038551717953008, 0.5464409389545426, -0.1309692535108721, 0.05801912077252117, 2.9751409828704136, -0.2899822667090948, 0.1377774543838377, -0.2826407689778791, 2.7743243941506344], [-0.055010732054337985, 0.05849260039871745, 0.01871915906460257, 0.0054917949516615555, 0.012387964324790677, 0.003806031360176392, 0.02105772106150172, -0.182943115199704, 0.03043346531080092, -0.025556208437105855, -0.12639068281601898, 2.2014636764341338e-05, 0.0028417014638757385, 0.03804549223555754, -0.25504910812490933], [0.028652280877607024, 0.0003382496879260061, 0.0019200307725462853, 0.07920492310519407, 0.02492839790719594, 0.022225976885840805, 0.026272315315277, -0.08104916524465523, -0.07136598994340758, -0.028686999323919733, 0.023488432373251114, 0.07586527632296713, -0.03655703554633543, -0.0337460446930873, 0.12224151931882245], [0.03594650443469552, 0.05431242132849365, 0.01766480864695363, -0.10656296372031361, -0.018733094354478393, -0.013168896983347634, 0.14407133501039504, -0.3146725444270891, 0.016752096460878444, 0.14266613206062176, -0.055704085216208885, 0.017509172165243343, 0.08028284500063043, -0.025769233428948088, 0.20878742277332524], [0.13073790897458343, 0.09481218382669764, -0.07458563401583483, -0.1236082183063974, -0.12188667370423958, 0.06700075154014108, 0.3148097502785038, -0.7729252520717944, 0.021257838959264534, 0.11808104945043756, -0.03233812438993802, -0.06315683740400177, 0.1363033173724425, -0.010612731754641084, 0.6948349847175691], [-0.010689369825867986, 0.0694459756152963, -0.17848275846727915, 0.6077818109371892, 0.22355983186864806, 0.36824975938099946, -0.15528402317934462, -0.3035941803483705, -0.7347983998838779, 0.3106419595589108, 0.34355309084370833, 0.8391201960167944, -0.4487478813459874, -0.09402193635712534, 0.016816380682535974], [-0.07891805849380004, 0.5100063460758788, -0.12915858416091472, 0.22561010576213722, -0.14457331742948323, 1.0221487483901546, 0.16878416818917605, -0.1328119432363864, -0.1366719376516838, -0.510599602226538, -0.344757588462089, 1.071784937567328, 0.2169661846115528, 0.6809285390426008, -0.42379258705219597]], "dtype": "float64", "shape": [13, 15], "Corder": true}, {"__ndarray__": [[2.8624431939632986, 0.9123627362317849, 0.47102953103285783, -0.13977983890848036, 0.1568800480304517, 0.5844842651644027, 0.30878302907521354, 1.1988507924027443, 0.15951376002470866, -0.5146303584564825], [-0.7600736157114495, 0.16210935740237092, -0.16194069810467426, 0.266959360345921, -1.0993354700650466, -0.005676976516779884, 0.9198950213489185, 1.2432947160956982, -0.29185642669469625, 0.681396865272348], [-2.553875247262558, 0.6917466998598, -0.4319960386751651, -0.5997407827193557, 1.0022029623755027, -1.5381341486287419, -1.803694601203717, 0.1435617973076552, -2.1420525960105135, 0.5674242242421862], [-0.8975653181432497, 1.2132844499428028, -0.4906787757332296, -0.03424736886375251, -0.5738212920953284, 0.45933623586427463, 0.3905143935629033, -0.22359588987284035, 0.2767766815690436, -2.725528063941143], [1.7102025402891345, 1.9937563800495792, 0.8740216663176056, -0.6427293189673287, 0.43342003048473365, 1.4556184587178012, -0.46357630412424117, -1.1962786232004983, -0.03040875671728074, 0.5029632956844833], [-0.9526420752352899, 1.110804027994307, -0.8164384592082623, 1.3021132804931097, 0.07521965403650159, 0.2572461045317409, 0.7753873934740323, -0.9558308203397837, -0.9192062242407685, -0.7449995129651196], [-0.38955870458213615, 0.3459360571603969, -0.3867185367321467, -0.08226823936338654, 0.13795797140032143, -0.6740931325882337, -0.578017152789458, 1.1409469198881559, -2.25904984707833, -0.030765141157393736], [1.8701301013023721, 0.24315861072461514, 0.666486011129403, -0.33182155272234864, 0.8882979582187092, 0.5937581918833434, -0.11529958423102825, -0.5396660000568483, -0.5260795516924451, 0.1845007853084967], [0.9728335394016865, -1.6959928671941544, -0.18657136419244022, -0.5403329547377888, -0.1763840198601624, 0.36877517890980427, 0.30979824272679274, 0.0005860564713661186, -0.4418005413131818, -2.943326266511923], [0.32603628701846826, 2.8022067243846713, -0.2766861530852318, 0.11458559742719401, 0.34469505524479926, -1.1454624900816575, -0.1185833297043618, -0.42973966805538233, 0.23406042933386392, -0.13701203526351513], [-2.9661244437513012, -0.6861607490490927, -0.31247723941446115, 0.13868657335040654, -1.7119103697174483, -0.5872055766792972, 0.19600773025315438, -1.857734583498664, -1.3164186182255266, 0.2662004864451882], [0.28844809208296723, -1.7612765020850707, 0.08713865801621805, 0.1805797519241331, 0.3552892412969199, -0.6401021846697604, 0.17086610054107726, -0.3210134637965851, -0.5893343865961798, -1.426780125704256], [1.4054367565892594, -1.6089191594874417, 1.1241166250279218, 0.09933288334804509, -0.32573207290602046, 2.014271327002641, 0.2177311853391423, -0.05266775957762042, -0.6155833684399442, -1.3416308625969502], [-1.712796047181294, 2.083732061123658, -1.2214751126553136, -0.5894366230031123, 0.0034101458729797482, 0.2529589903414361, 0.22944350478051406, 1.623459620246475, -0.8993320431879753, 1.152438343086411], [-0.6865464926292993, 0.13472050447140166, -0.7123574497167994, 0.18999175302425006, -0.03746525391441406, -0.26515828074644204, 0.4203456853434005, 0.32376117596589027, 0.8432376285872748, 0.525464605503857]], "dtype": "float64", "shape": [15, 10], "Corder": true}, {"__ndarray__": [[1.063474553127562, -0.21624738278663122, 0.5903828992641317], [-1.1244818154863205, -1.7930611598717898, 0.8645208597833492], [-1.5090424940062512, -0.6501215604415262, -0.0707179071565159], [-1.1327931757615288, 1.3122017400529438, 0.9277043949653051], [-0.618475615645843, -0.0994741980566386, -1.8515447657009796], [1.7837081503232388, -0.005729124695360577, 0.3042235177050083], [0.39789274970764626, 0.013420995602826629, -2.2095631209997006], [0.16382480479263295, 0.21246529956223895, -0.5602474446850192], [-0.10392136414461628, -0.40881909503081115, 0.9791152879552405], [-2.365403137079575, 0.024479037898093595, 0.01028214607216529]], "dtype": "float64", "shape": [10, 3], "Corder": true}, {"__ndarray__": [[0.9033582481197625], [-0.9187484708601029], [1.0041728584182945]], "dtype": "float64", "shape": [3, 1], "Corder": true}], "intercepts_": [{"__ndarray__": [0.5258984027954668, 0.02509204762721665, 0.15690564669090942, -0.7244601566090928, 0.9087736284526207, 1.9583855427009649, 0.2552684009516322, -2.7685804759902672, 1.001259145186334, 0.3497729367931171, 0.0007641766403572989, -0.532640548142763, 0.05881875405014067, -0.4013979036300302, -1.0809953519420668], "dtype": "float64", "shape": [15]}, {"__ndarray__": [0.03846028589861315, 2.551745510025844, -0.29620183382116233, -0.17849976427698178, 2.4807335387806764, 0.8808373161828114, -0.5899938434454995, 0.5066332256936626, 0.6807960820777403, 0.34697193902456946], "dtype": "float64", "shape": [10]}, {"__ndarray__": [-2.3283938419760686, 0.8434698373261034, 0.8154307396252122], "dtype": "float64", "shape": [3]}, {"__ndarray__": [1.5002030393740216], "dtype": "float64", "shape": [1]}], "loss_": 0.10078148786499054}}}