{"inputs": ["mhs_channel1", "mhs_channel2", "mhs_channel3", "mhs_channel4", "mhs_channel5", "cloud_filter", "lat", "sea_mask", "mhs_scnpos", "solar_azimuth_angle", "solar_zenith_angle", "avhrr_channel3", "avhrr_channel4", "avhrr_channel5"], "targets": ["iwp_log10"], "scaler": {"params": {"copy": true, "quantile_range": [15, 85], "with_centering": true, "with_scaling": true}, "coefs": {"center_": {"__ndarray__": [234.13999476656318, 258.14999422989786, 241.88999459333718, 253.2399943396449, 261.509994154796, -1.2874999712221324, -1.7942999546721694, 1.0, 48.0, 201.1199955046177, 70.66999842040241, 267.05427974515726, 252.72436935117003, 251.19582771866894], "dtype": "float64", "shape": [14]}, "scale_": {"__ndarray__": [61.93999861553311, 63.93999857082963, 8.399999812245369, 15.509999653324485, 33.81999924406409, 2.5533332762618954, 127.31917678364698, 1.0, 19.0, 159.10999644361436, 101.49999773129821, 46.368140821733135, 44.78585614181523, 43.55668234311554], "dtype": "float64", "shape": [14]}}}, "estimator": {"params": {"activation": "tanh", "alpha": 0.0001, "batch_size": "auto", "beta_1": 0.9, "beta_2": 0.999, "early_stopping": false, "epsilon": 1e-08, "hidden_layer_sizes": [15, 10, 3], "learning_rate": "constant", "learning_rate_init": 0.001, "max_iter": 3500, "momentum": 0.9, "nesterovs_momentum": true, "power_t": 0.5, "random_state": 0, "shuffle": true, "solver": "lbfgs", "tol": 0.0001, "validation_fraction": 0.1, "verbose": false, "warm_start": false}, "coefs": {"n_outputs_": 1, "n_iter_": 3501, "t_": 0, "n_layers_": 5, "out_activation_": "identity", "coefs_": [{"__ndarray__": [[0.2001773344136115, 1.1129456902822434, -0.03573625299624418, 0.5086041689343468, 0.14695218570828175, -0.17513729620957835, -0.0570281660085796, -0.055157572896611946, 0.059883330218649077, -0.11455858858354731, -0.06270478795171881, -0.07580584305150952, -0.22814835322993354, 0.13839971730800724, -1.4913654836584682], [-0.510855939500639, -1.7249727383038935, -0.34055647478569684, -0.7308808765573495, 0.06441120967959761, 0.4453403033226584, -0.02862618842160238, -0.3892119805878502, -0.4467642453620753, 0.26191624736570696, -0.22283478706105284, 0.25361980443326265, -0.1502769764383399, -0.13025545532944063, 0.3243364333998647], [-0.09467712806459244, 0.07104675681135757, -0.24118942931304813, -0.24989909306768585, 0.021116779755546676, 0.855368305833607, -0.004021595587612127, -0.36228236094690297, 0.09516892153234693, 0.04251259961576998, 0.32112121349363293, -0.11789784542892677, -0.39189657092132535, -0.13499875805012831, 0.09545289543925752], [0.15655843922689025, -0.12128579308362016, 0.4174909267537642, 0.8306248634293453, -0.2691983427293318, -0.4899981623166679, -0.08390858983510427, 1.8092175977592089, -0.5415638163010337, -0.0683444455133449, -0.820697102227347, 0.3508819343595132, -0.12088074662136514, 0.1254137268912631, -0.08853721914360935], [-0.15564863535821286, -0.17517118679410248, 1.0223314119614177, -0.6719048363930114, -0.09819938646852593, 0.36786691487285833, 1.081810420975032, -0.27738947344468134, 0.811476625766918, -0.18014239015362762, 2.2397783087196057, -0.8409917292422695, 2.770590762197705, 0.7314557366233527, 0.24645426069222975], [-0.06066709020947674, 0.009898354952478358, -0.48568996109331725, -0.509812234841618, -0.34223692053793914, -0.0179547978785319, -0.025678293285745914, -0.29641522239356105, 1.4455072426361406, 0.19823173956881546, -0.05849659569236947, 0.0011957915105232527, -0.09358674510238314, 0.531287632712473, 0.05098030426338965], [0.7495761887286656, 0.011199002468686634, -0.12357415608039614, 0.6765880742098889, -0.4792384058146696, 0.1226609106249495, -0.19082535334113837, -0.12942882525120777, 0.021663475763045656, -2.0546972754939694, 0.32674733927886357, -0.18233788680743393, 0.17207126003119855, -0.3762185436060096, -0.19496380292793505], [-0.0381973564297336, -0.0029832324864074626, -0.013704449944709249, 0.021015237780775277, -0.000393085486432273, 0.0052521345019890635, -0.05360510476103699, 0.035004812763861144, -0.008164795679355902, 0.09193784179983241, 0.06661015299288292, 0.006580697176413768, 0.01427261738015039, -0.008480452350233075, 0.010518687116091299], [0.03140843156650378, -0.0069501287380891305, 0.029501977870628863, 0.04200329587867621, 0.007695483437368782, -0.00213651811607728, -0.055712010012999684, -0.059950375956060745, 0.02007107798598734, -0.04587159112481859, -0.019806354924874075, 0.010720235682180326, 0.05925546467854827, -0.0023709279479985266, -0.00264652784370109], [-0.018308487748527464, 0.03239061775796487, -0.17890846942446997, 0.034461488290841974, 0.020130035841210033, -0.002488522449191473, -0.11983734847702535, 0.07068397201709194, 0.0799639455825077, -0.02226341187050992, 0.2223981197746035, 0.00507768721884588, -0.0914985621829119, -0.1188929259972207, 0.02149842991303549], [-0.3343109494372878, -0.06627854041159867, -0.4144368814340122, -0.0354047689997045, -0.12806194907780105, 0.3118163853585672, 1.0499250737629249, 0.1281117603323881, -0.23159641995441155, -0.03414225366873918, 0.3863170570280284, 0.008366355681936227, 0.08511484688683597, 1.2703735141621655, -0.050306354139243156], [0.5240503581005903, -0.5618107139471876, 0.46686177258596095, -0.15641003458093197, -0.12278364584444128, 0.6787089586107823, -0.8557946501798607, -0.13561135030595867, -1.0213296448035116, 0.1501580743940345, 0.9619675304386777, 0.22273731056489393, -0.5999800719203918, 0.9421244130387321, -0.3894704177444386], [-0.35954099793479866, 0.4900219902102978, 0.021019246979505822, -0.023420947779063107, 0.3360497821218852, 0.028712518599094197, 0.44847347806638793, 0.16009731509402178, -0.045279190280196634, 0.03820345311570735, -0.9017143062338175, -0.3745286941843037, -0.34974866571393476, 0.32410587110264844, 0.07537769368717058], [-0.045685244403211256, 0.15588590463481894, -0.28101042734451526, -0.19786309075169625, -0.11844031023356562, -0.23617282272907789, 0.6099357626230056, -0.02734939804170232, -0.4865550180218468, -0.20775164303583052, -1.213979320327937, 0.04769888025830931, -0.08893772961012784, -0.021665978005388525, 0.20058189870835025]], "dtype": "float64", "shape": [14, 15], "Corder": true}, {"__ndarray__": [[0.34381710043304453, -1.6570231611367603, -2.080565677873954, 0.13461309662336327, 1.215480871797701, -6.544446487831637, -0.37193629256007704, -1.206877860104496, -0.8370449129334789, -0.28539201131961667], [2.4407877328076877, -1.8224144229071064, -2.3684857231181216, 1.1154171984062735, -0.6306581665691499, 1.590082150181946, 0.3080926960609124, 0.6254363251851115, -0.6678573608352307, 0.2197676948264195], [0.11616665768414594, 0.7688244998186845, 3.428222030349223, 0.5760478530927791, 0.6409137605827868, -0.08669458416786692, -0.3191941689311343, -0.039914518341882824, 1.2421821171901855, -0.15930319445071142], [-0.6185588083536777, -1.4135873720931298, 4.715830482839461, 0.32197037013666735, -1.5554793223505339, 0.8439002549503164, 0.08889031163669925, -0.9542905673697263, -1.6500337286850406, 0.2898462366181927], [2.2005389420233987, 0.7151476816816512, 4.211413910439026, -0.9824131564504969, 0.0464471499809924, 0.944015188466409, 1.2015166676900428, 0.8106045439667746, 1.0159262988069289, 0.32358555019975427], [0.36046903961373367, -0.3365276414885083, 0.8862798260296727, 0.4374949635419128, 0.15246022267350365, 1.1374400291050009, 1.1633814801733566, -0.41828003583204587, -1.1810201605718536, -0.253102715518006], [-0.1570781104571221, -1.0942588390312717, 3.7711339551816927, 0.09386295514039793, -0.35578919842145124, -1.7260019185559332, -0.7443432378500123, -0.7802282721831092, 0.01542731012439415, 0.15900919369656308], [0.5564713915403109, 0.6410322942674802, -1.0743634326091496, 0.011695287113973316, 1.2436579416385176, 1.1729637736297203, 1.9807425615292458, 0.3780702642296316, 0.2619091829389399, 0.20333796484673672], [0.004510382284232783, -1.7795125341585984, -1.7310552234114904, -0.008072778407564499, 1.2235535629261067, 0.8890177275158468, -0.5853548120631917, -1.6888176383403124, 0.18316858171887732, -0.3477547971911133], [-1.5621576597624989, -1.7506750448015362, -0.055557601132677464, 0.3589547985227576, 0.7887606424305414, -2.8775542841469153, -0.9761940537849514, -1.11147281612797, -1.1211230880343317, -0.46082382728452603], [0.48741437302637547, -0.6740339026560844, 1.9993942470898889, 0.043836928164522185, 0.39009024138482995, -2.3623045521035264, -0.5132573868730813, -0.020748038457060688, 0.16021921580720594, 0.1887020548043678], [3.662156046408461, -0.029428441832616937, 2.53658748037065, 1.7353584934480895, -3.892669735237456, -2.2381369673718208, 2.7430526762898486, -0.38832995085829897, -0.47447254376336556, 1.6255384448378616], [-0.17584990547481677, 1.2448213772545282, -1.4837300572193344, 0.07539724871587433, 2.062077879699179, 1.542785045064811, 0.7473497205731561, 0.8096323254972945, 0.40235916657593684, -0.11846598355592254], [0.8385616000981253, -0.0010948852451838544, -4.402633586617591, -0.07118895422289741, 0.1074914739181548, -0.4800144232535721, 0.4513870147514198, 0.004281295091595171, -0.27984168210158633, -0.4665638854745352], [1.9044880743480597, 3.1328347422775837, -0.3321624796401974, 0.9047200341667136, -1.1237359407905203, 0.5692941590034083, 0.09201827288143995, 0.34685464697117685, -1.053386676966738, -0.21845099491026648]], "dtype": "float64", "shape": [15, 10], "Corder": true}, {"__ndarray__": [[1.4999770958178622, 0.7376917985706606, -2.3079422848233757], [3.5256931463409082, 0.1317171129580125, -5.6312352339585425], [0.2777618497849394, 0.6935306920809345, 2.0868280133634207], [-3.7258989501339808, -0.2002611684520076, 1.3633623298020814], [0.2337256448569144, 0.08710155639090861, -1.5997244100464385], [1.0318199775378303, 0.7550853509909453, -3.558261542971169], [1.5989818059475431, 0.45995448859377985, -0.9538402185201103], [-2.1500492262344033, -0.8464477224348597, -1.41367784834021], [-3.502668228396388, -1.4307599060866483, 1.3205310248613689], [-4.20591832053488, -0.07402556960808779, 1.1978468602091779]], "dtype": "float64", "shape": [10, 3], "Corder": true}, {"__ndarray__": [[-1.2338467149724595], [0.6391268038939975], [0.840965491422773]], "dtype": "float64", "shape": [3, 1], "Corder": true}], "intercepts_": [{"__ndarray__": [0.09227568270478854, 0.005684907434013313, 0.38015992884549876, 0.16785118476764238, -0.15586398313926345, 0.8583436796046882, -0.08024527221374121, -0.5632488174575712, -1.3253187436800933, 0.551545917000583, 0.5798516483663871, 0.22822102438173703, 0.3578239033257067, 0.33411659179738423, 0.8351173504840336], "dtype": "float64", "shape": [15]}, {"__ndarray__": [-2.1865493505325864, 3.7494066930249477, 1.4511320663921237, -1.262475783840833, 2.140087115820447, -0.15077454304011123, -0.13786955326220865, 1.1727173086104565, 1.1225362288008573, 1.2499582604088537], "dtype": "float64", "shape": [10]}, {"__ndarray__": [0.30287231621138044, -0.35461501817823504, 0.4307114979780863], "dtype": "float64", "shape": [3]}, {"__ndarray__": [1.1954275246473822], "dtype": "float64", "shape": [1]}], "loss_": 0.09663012553955111}}}