{"inputs": ["cloud_filter", "lat", "sea_mask", "mhs_scnpos", "solar_azimuth_angle", "solar_zenith_angle", "avhrr_channel4", "avhrr_channel5"], "targets": ["iwp_log10"], "scaler": {"params": {"copy": true, "quantile_range": [15, 85], "with_centering": true, "with_scaling": true}, "coefs": {"center_": {"__ndarray__": [-1.2874999712221324, -1.7942999546721694, 1.0, 48.0, 201.1199955046177, 70.66999842040241, 252.72436935117003, 251.19582771866894], "dtype": "float64", "shape": [8]}, "scale_": {"__ndarray__": [2.5533332762618954, 127.31917678364698, 1.0, 19.0, 159.10999644361436, 101.49999773129821, 44.78585614181523, 43.55668234311554], "dtype": "float64", "shape": [8]}}}, "estimator": {"params": {"activation": "tanh", "alpha": 0.0001, "batch_size": "auto", "beta_1": 0.9, "beta_2": 0.999, "early_stopping": false, "epsilon": 1e-08, "hidden_layer_sizes": [15, 10, 3], "learning_rate": "constant", "learning_rate_init": 0.001, "max_iter": 3500, "momentum": 0.9, "nesterovs_momentum": true, "power_t": 0.5, "random_state": 3452, "shuffle": true, "solver": "lbfgs", "tol": 0.0001, "validation_fraction": 0.1, "verbose": false, "warm_start": false}, "coefs": {"n_outputs_": 1, "n_iter_": 3501, "t_": 0, "n_layers_": 5, "out_activation_": "identity", "coefs_": [{"__ndarray__": [[-0.028125176560286465, 0.2564618229288735, 3.7753632550183136, -1.0217507440567617, 0.04994153852063158, 0.1933084082444145, 0.320366505237618, -0.25050446159264456, 0.04546003468532834, -0.047381323168996126, 0.10067986694023635, 0.047020625678013205, -0.024541806705601334, -0.17398143812830577, -0.615707001339633], [0.25127339099240587, 0.9256260898724985, -0.1480410239246199, 0.5570476541368876, -0.3583443802643873, 1.107047130442517, 0.8008167330397276, -1.8280220308980002, 4.082922034191154, -3.1880974749175426, -0.9923400463909694, 0.1445691531161918, 0.8437695822451966, 0.24661708078176303, -0.3201868757934543], [-0.09176469784859018, 0.33655385055529474, -0.14059991432495522, -0.14357872940929547, 0.009079792398471346, 0.5167708727031803, 0.18821051699145266, -0.3954467184527329, 0.24308665470892, 0.11152024840618134, 0.1972649480287474, -0.1362282655533815, 0.2662421770460823, 0.09435152751400272, 0.040703353264533164], [-0.07072305106636072, -0.032963666381070296, 0.021869248145769495, 0.015391447717634852, -0.03154751050651081, 0.015644048512098913, 0.027362363652361783, -0.05295499473429439, -0.029401074190374573, -0.01985960482064771, 0.10903820479312272, -0.025083652623535867, 0.022624522211608, -0.04617904763950079, -0.15833658215155122], [0.38175006578818005, 0.22972764517738878, -0.03643470094692446, -0.19970377551563553, 0.34450648366194636, 0.0967960526954953, -0.10868395199322546, 0.5861139372799631, -0.08242669692944908, 0.2177797546687585, -0.5644436098137119, 0.18895320310570762, 0.02803613394215546, 0.10473217439914966, 0.7334173252954673], [0.1731339240575751, 0.2427160547961456, 0.09334204668833951, -0.5574271585991784, 0.2146822601624538, 0.3730000644337108, 0.05494770250675049, -0.6687770201737884, -0.47055129856208877, -0.6479443680385405, 0.38448692149009095, -0.37089109956518856, -0.06968611711299279, 0.2857102457669671, 0.3564750139940742], [-0.5212116815753982, -0.19051499403224392, -0.35604862270911913, 1.0707583596802919, -0.654056174138154, 0.5089530891983979, 0.6853147895853292, 0.4873273387999213, -0.5286556805125306, -0.5410579175834574, -0.3596056670254318, 0.2548967193334996, 1.0151854481186273, -1.4942576316474314, -0.8186267921021196], [-0.46262804092793314, -0.08659586299767347, -0.7437877576525918, 0.4136031805213909, -0.238690261834085, 0.17171230723939876, 0.4685726924665275, 0.26578974713266573, -0.6682409435373373, -0.4087249065534214, -0.19538865011243528, 0.3647958551800857, 0.551045596943879, -1.5883188253931517, 0.06002964770169712]], "dtype": "float64", "shape": [8, 15], "Corder": true}, {"__ndarray__": [[0.7907451769528383, -0.23764620281101329, 0.7830329390100138, 0.6238312504385498, 0.6221704115921958, -0.17656037076205025, 1.1930049368566706, 1.6852561885481014, -1.3412088085497955, -0.630368712130283], [-0.040061690234830284, -0.4014144164885449, 0.36589534372473936, 0.5359988169405812, -0.1486672641962839, -0.01479488169997557, -0.33410954855859787, 1.3724678625669193, 0.45412479754636415, 2.0899641092587156], [0.775973427975137, -0.6534130229501444, -0.6227562156779866, -1.7019987553964564, -1.5162231858557078, -0.28100773560145215, -1.8396258850818985, -0.9152338215188697, 0.9253670390439951, 0.17355772370181968], [-0.25760127172389563, -0.46123826356376685, 0.642238621652127, 1.0987437302330854, -0.24122397787667876, 0.95582644307195, 0.9410243621174974, 0.1912275001288051, 0.6056908540309786, -0.773780636066153], [0.44779887794218254, -0.7760091405399459, 0.954347532782718, 0.12326024994640751, -0.968733463797433, 0.6113876665167416, -0.7724449863461388, -0.152732247904939, 0.517292985997681, -0.0027697844551483465], [0.22750749355150657, 1.0170851312609621, 0.45141093414251154, 0.183705490887144, -1.0546277634748376, -0.5771039504369452, 0.2232902765730361, -0.6667424942243387, -0.5440914435580033, -0.9332796028902183], [-0.6200800211048048, -0.06321208291139217, -0.513046721851915, -0.08256682504344613, 0.5740148608434328, -0.6427162295058664, 0.06810788860737578, 1.1644121633013478, -0.24464045696300907, -0.16809157606185282], [-0.47981712810855437, -0.32549468109714685, -0.007531634589120606, -0.5488528413271063, -0.6433670459001444, 0.4584297617273528, -0.42937959182313085, 0.13846964099558076, 0.5704326352293411, 0.49503210920103713], [-1.2131625634748229, 0.22566275085545218, 0.29652988248034007, -0.41030793539309846, -0.2799310353292877, -0.11965997778835646, 0.1936792572405129, 0.2258333968360559, 1.2221672727451254, -1.1238993848627066], [1.1017431091237524, -1.2347356033425594, 0.08240758718952926, 0.9943726285837956, 1.0581645097969161, -0.5659034597221105, 1.2414262425632614, 0.5560641041626677, -1.1181862832436658, 0.8723180795081369], [0.24633802211783734, -0.1667567676111905, 0.2649694448585248, 0.3774736951965578, 0.533972445550777, -0.21318108370833883, -0.3463539524037757, 1.051727910961519, 0.6619312496553142, -0.25307154737705245], [0.37764261693654905, 0.2268496678433871, -0.5020221343408167, 0.7867857434388124, 0.998024053831087, -0.9809661868808176, -1.2535194084463948, 0.3397516372487452, -0.11701319420691128, -1.0939305712087963], [0.0040206286481576665, 0.8566306805318457, 0.1908521707937584, -1.6863703551187967, 0.655900556509664, 0.8128909908632809, -0.6703406150037106, -0.3148065416067655, -0.4757625821408899, -0.36057474495556896], [0.2516673997484678, 1.2158486575774876, -0.4680950007307439, 0.11223745027827915, -0.15938584487541965, 1.24780677669346, -0.4338750725289937, 1.8616660083440815, -0.462474224557712, 0.024347119088139815], [-0.6632262897523435, 0.2693430804252852, 0.30258584277970246, 0.19057921486172183, 0.6371200622526404, -0.955955757167447, -0.06448993261331705, -0.6518468563534413, 0.5676911429511367, -1.4355873423388041]], "dtype": "float64", "shape": [15, 10], "Corder": true}, {"__ndarray__": [[0.3119843094641595, 1.6111742252708872, -0.349696010569174], [-2.0134072002424115, 0.5089297131809146, 0.5379801846549275], [0.22526749184831324, -0.8426099692536008, -0.8055428244177785], [-2.3415081044779877, 0.279873423626876, 0.35352818581458545], [1.31333286966311, 1.2272910234724013, 0.7891778509207893], [-0.8269462922881895, 1.070330011581425, -0.8205440424977035], [0.8991822121073173, 1.5187178281309741, -1.2019914926744375], [-1.8064598493563648, 0.7841380038457468, 0.8202907253870245], [-1.3811608039328813, 0.05910138978828295, 0.1967302078773763], [1.9642598313693025, 0.14842192792308107, 0.37140752922544407]], "dtype": "float64", "shape": [10, 3], "Corder": true}, {"__ndarray__": [[-2.124120029578988], [1.6185606990547874], [1.9237268114365564]], "dtype": "float64", "shape": [3, 1], "Corder": true}], "intercepts_": [{"__ndarray__": [-0.06250179815544513, -0.240303442566373, -2.3637361036301625, -0.032700217054747995, 1.2841809940329598, 0.34033094673710507, 0.27857873282943707, -0.060885618521998135, 1.2193665235849738, 0.7357987808858613, -0.35831199234489086, 0.2184619610550274, 1.0863007148234147, 2.033464811713813, 1.1169926854874068], "dtype": "float64", "shape": [15]}, {"__ndarray__": [-0.01841179096210878, 2.2890815800279936, -0.9978803879081503, -0.3843564731156529, 0.2120832169152354, 0.4093422568186688, 0.16009141686057435, -1.667805744675279, -0.414361122988188, -0.10429969445923983], "dtype": "float64", "shape": [10]}, {"__ndarray__": [0.8372742674490463, 0.6213379433675627, 0.16979330257271055], "dtype": "float64", "shape": [3]}, {"__ndarray__": [-0.29403256636015923], "dtype": "float64", "shape": [1]}], "loss_": 0.15912431300734195}}}