{"inputs": ["mhs_channel1", "mhs_channel2", "mhs_channel3", "mhs_channel4", "mhs_channel5", "lat", "sea_mask", "mhs_scnpos", "solar_azimuth_angle", "solar_zenith_angle"], "targets": ["iwp_log10"], "scaler": {"params": {"copy": true, "quantile_range": [15, 85], "with_centering": true, "with_scaling": true}, "coefs": {"center_": {"__ndarray__": [234.13999476656318, 258.14999422989786, 241.88999459333718, 253.2399943396449, 261.509994154796, -1.7942999546721694, 1.0, 48.0, 201.1199955046177, 70.66999842040241], "dtype": "float64", "shape": [10]}, "scale_": {"__ndarray__": [61.93999861553311, 63.93999857082963, 8.399999812245369, 15.509999653324485, 33.81999924406409, 127.31917678364698, 1.0, 19.0, 159.10999644361436, 101.49999773129821], "dtype": "float64", "shape": [10]}}}, "estimator": {"params": {"activation": "tanh", "alpha": 0.0001, "batch_size": "auto", "beta_1": 0.9, "beta_2": 0.999, "early_stopping": false, "epsilon": 1e-08, "hidden_layer_sizes": [15, 10, 3], "learning_rate": "constant", "learning_rate_init": 0.001, "max_iter": 3500, "momentum": 0.9, "nesterovs_momentum": true, "power_t": 0.5, "random_state": 70, "shuffle": true, "solver": "lbfgs", "tol": 0.0001, "validation_fraction": 0.1, "verbose": false, "warm_start": false}, "coefs": {"n_outputs_": 1, "n_iter_": 3501, "t_": 0, "n_layers_": 5, "out_activation_": "identity", "coefs_": [{"__ndarray__": [[0.2600790193453313, 2.177589771514676, 2.850012208361213, -0.2424325557408193, 0.100533128901896, 0.44384997465959936, -0.060688776734641306, -0.33599659430141016, 0.38042375148726004, 0.15972276051163836, -0.2809550536702101, -0.14397576410551935, 0.5603606036681876, -0.16104368465878388, -2.147453876796449], [0.8739919658115853, -0.9633119510889057, -3.9953370386406797, -0.007247848277974996, -1.110371844007716, -1.0375030662587288, -0.46287915878278113, 2.6242989475863028, -1.0704167335954742, 0.5119230457980802, -1.8740075288269566, -0.6738401138691696, -1.7455097412942004, -0.16640661675336565, -2.2216055902640544], [0.38294145010733666, 0.03995275983390081, 0.26956430589614494, -0.5357772697664005, -0.5498316316006286, 0.15862069333138606, -2.013733097941968, 0.5128342470611001, 0.23117032563657394, 0.631267378726649, -0.6546148806441686, 0.6440038341781049, 0.5316148134725078, -1.3774201983886316, 0.5300042215433619], [-0.4818277746573818, -0.2968316999281244, -0.3882780810147469, 0.7349348882222089, 0.8193561785641378, -0.7844176368993493, 0.026555112053199055, -1.3050921005385794, -0.568268327982019, -0.8917236683468293, 2.5687114232415302, -2.4833529203632625, -1.483003521739722, 3.9666263768733523, -0.023630852469262435], [-0.07401270721798942, 0.896022995823351, -0.664131575636631, 0.06123039036139106, 0.7959520579073532, 1.3709651757722021, 0.47465821585227125, -4.629528931248632, 1.0652050694744937, 0.5710905096336945, -3.012528063851663, 3.566478464037877, 2.1911768321922143, 1.1018542102695992, 0.9757295279031134], [-0.5667827065867163, -0.07510931346352079, -0.10524438924499617, -0.09662852780282442, 0.35266213376586775, -5.599804983036014, -0.32795168360887167, 0.08571594779018238, -3.7440688714662027, -0.19559471677284865, 0.0698795822071079, 0.10200173769859999, 0.7656113073310727, -0.04290623418908691, 0.13785996969247177], [-0.10221722731796204, 0.06967438673350809, 0.040043290549617014, -0.0008639751009929413, 0.03244396716184955, 0.08867411186769267, -0.032194259287909005, -0.025277493112024853, 0.4165422327647832, 0.023936089617173445, 0.08373503530616898, 0.02568830654698215, -0.14881407452106651, 0.05079539738581758, -0.25522101312202106], [-0.08719416478881298, -0.019529673900759183, 0.04101205989524394, 0.5888288598929131, 0.07321645425255063, -0.05224529615654187, 0.07014778836404072, -0.007625471527481669, -0.025560180310180418, -0.2061987765752418, 0.038932810884270606, 0.023542845092314517, -0.165743186269882, 0.036562016890515324, -0.055298033385499205], [-0.5319315012135352, -0.22014455507236275, -0.12072244422514959, 0.03644910952360954, 0.12590426916033437, -0.014470998656985569, -0.0798399552503912, 0.05602171026535538, -0.00899414041657945, -0.07107046363437129, 0.03594726700387359, 0.0664513802873396, -0.31740240556039706, 0.009891443363885906, 0.2766462753412156], [-2.094817976854112, -0.46172929981372, -0.14312372761404368, 0.15241924666765233, 0.49858806501578884, -0.08405413407418265, -0.21641573311404233, -0.04639159646471395, 0.3543987285972058, -0.2463900446431612, 0.1387039443055641, 0.28473923434982434, -1.0440781639052399, 0.10972294203523007, 0.6373497871300362]], "dtype": "float64", "shape": [10, 15], "Corder": true}, {"__ndarray__": [[0.020904412625698934, -1.5351658634449419, 0.45799968661766965, -0.18893330848107875, 0.4236101080078916, -0.23752753500160134, 1.1750835361348049, 0.4807265314806174, -0.18602717177174355, 0.3038577335211932], [-4.400318399520193, 1.8509794081058935, 1.454677718466827, 0.23783430430432762, 0.13058662941579896, -0.3874213797924494, -1.3105165016304383, -0.16557517702457916, -0.6130036767753593, -1.2300520782933761], [4.129689281112362, 0.10894134677110226, -1.109436928178242, -0.05634822896597458, 0.07672710006357328, 0.24277392795250033, 0.002170918357932285, 0.15062363203079954, 0.4559760971435548, -0.281847124883767], [1.2418453645476073, 0.08027082182859704, -2.6398192091462738, -0.8580353470809331, -0.004924287910912895, 0.2741638904099617, -0.23931745393026796, -0.10897832096689838, -0.7378148891698344, -0.9956608586896075], [0.8971359808190669, -0.7264842320945413, -0.292461005359129, -1.382562450277471, 0.38938523878968134, -0.8924967139730141, -0.7285904025277326, 0.6321572695257729, -0.974926068507428, 2.232968267090808], [4.773301387815036, 1.290558384916354, 1.8223552588207668, -0.10968975199743426, -0.12444474963649971, 0.8166727821120329, 0.22002792491948647, -0.07904945760000266, -0.34968050270790535, -0.14218628304945996], [-0.48468373211878385, -0.8748771039697335, 0.9780115216105647, -0.07972210088342052, 0.27911239523823445, 0.1101194056498102, -0.03410881585799284, 0.4331192687411023, 0.20604356661569959, -0.2041878531295359], [-2.4267717419472747, -0.42980507011850855, -1.1991440244517138, 0.5473538818463936, 1.0651344277906192, 0.6600974884031058, 0.30634694366134285, -0.9959796689652595, 0.8408920959078219, -0.9212464792830483], [-4.935314450791002, -0.7333070252709835, -0.7825288263938607, -0.1275757107636392, -0.25352135601726256, -0.9760447089212252, 0.7898126626091336, -0.03761435315896711, 0.4112821379985243, -0.2201605531095938], [0.9988426181474228, -0.9284850633369347, -2.3324526611430443, -0.704133908225672, 0.8449132132638607, 0.09660496266446834, 1.5734083512563073, -0.03276321022984731, -0.395258023747902, -2.1335417832923715], [-1.0658308484628176, -1.1883619998279835, 2.0079350559088542, 0.6960225320775918, -0.6640523519198167, 0.2914553544675201, -1.1347116241136184, -0.8318573623279363, -0.11743136910924311, 2.0745998786471316], [-0.09661100169212808, -2.2295188253907927, 0.5346515184134524, 0.31604097820309185, 1.6626155248845476, 1.2311186213356442, 0.18646983956498958, 0.17479491984117884, 2.0201627354509935, -0.43381230639229956], [-0.7400099147547775, 0.17929466962872048, -0.7691991640631594, -0.3166056317275399, -0.6835826707764618, 0.2247996261611621, -1.6305473093975738, -0.4013161016207595, 0.38747890861769974, 1.2279553397555814], [-0.5341007745931423, -0.8690419184633087, -1.4038803935475925, -0.20847610822050167, 0.3291355967984724, -0.14065698042575037, -0.00884406402973205, 0.05514488991551611, 0.39902679435147065, -0.27429460554635515], [0.4923795123955874, -0.24718691366298554, -0.22967990751379108, -0.1599004248049244, 0.007598171599365679, -0.6155508940014228, 0.28303416063414877, 0.11106620120945976, -0.368842486082725, -1.6269700179017026]], "dtype": "float64", "shape": [15, 10], "Corder": true}, {"__ndarray__": [[3.98592696972366, -0.09889275185569359, 0.3198371042171699], [2.527843774297663, -1.1725687489406005, -1.0804958065202541], [-1.0420818844431166, -0.8713170003274188, -2.3049504720256184], [1.127095074157134, -0.843417211022567, -2.1205848002911134], [-1.0070956316216382, 0.8719878576702803, 0.348576321931911], [1.6858999581816385, -0.3563999712359319, 0.9965174922480623], [0.29348122646034364, -0.030690978211205797, 0.25646060806085], [-1.142909457970095, -1.9437716479443379, -0.6770275482523899], [-1.0924566513320462, -0.18257496409188256, -0.3594849974932217], [-1.1586707418607416, -1.848040005938483, 0.10967813938780983]], "dtype": "float64", "shape": [10, 3], "Corder": true}, {"__ndarray__": [[-2.0189251264937753], [-1.0752944742096782], [-1.4587560526186112]], "dtype": "float64", "shape": [3, 1], "Corder": true}], "intercepts_": [{"__ndarray__": [0.2655219592574555, -0.9990034509032217, -0.3884252987948354, -1.2597361766407005, 0.044153387076473184, -1.4216932363266948, -0.347772374925695, -0.4590091402390741, 0.28137153798919123, 0.3396979181140406, 0.9473103250891077, -0.4244871594174118, 0.2208298087866982, -0.13065507971898116, -0.09783872218765802], "dtype": "float64", "shape": [15]}, {"__ndarray__": [-1.1933651840484751, -2.4798472978899255, 2.324825893873881, -0.4072631649199457, 1.631852673356864, -0.6229619639214298, -2.176334679316504, -0.6526748048793798, -0.23521346908857316, 1.8551491922878183], "dtype": "float64", "shape": [10]}, {"__ndarray__": [-0.5819489463319035, -0.5225059497387998, 1.3094664200417612], "dtype": "float64", "shape": [3]}, {"__ndarray__": [-0.42968838659791286], "dtype": "float64", "shape": [1]}], "loss_": 0.16462762659252275}}}